digraph Tree {
node [shape=box, fontname="helvetica"] ;
edge [fontname="helvetica"] ;
0 [label="X[68] <= 0.5\nsquared_error = 0.185\nsamples = 9115\nvalue = 3.637"] ;
1 [label="X[0] <= 0.5\nsquared_error = 0.179\nsamples = 8291\nvalue = 3.611"] ;
0 -> 1 [labeldistance=2.5, labelangle=45, headlabel="True"] ;
2 [label="X[69] <= 0.5\nsquared_error = 0.174\nsamples = 8096\nvalue = 3.601"] ;
1 -> 2 ;
3 [label="X[59] <= 0.5\nsquared_error = 0.172\nsamples = 7197\nvalue = 3.578"] ;
2 -> 3 ;
4 [label="X[67] <= 0.5\nsquared_error = 0.169\nsamples = 7104\nvalue = 3.573"] ;
3 -> 4 ;
5 [label="X[76] <= 0.5\nsquared_error = 0.17\nsamples = 4752\nvalue = 3.603"] ;
4 -> 5 ;
6 [label="X[64] <= 0.5\nsquared_error = 0.165\nsamples = 4541\nvalue = 3.593"] ;
5 -> 6 ;
7 [label="X[6] <= 0.5\nsquared_error = 0.163\nsamples = 3783\nvalue = 3.61"] ;
6 -> 7 ;
8 [label="X[33] <= 0.5\nsquared_error = 0.161\nsamples = 3723\nvalue = 3.605"] ;
7 -> 8 ;
9 [label="X[70] <= 0.5\nsquared_error = 0.16\nsamples = 3642\nvalue = 3.6"] ;
8 -> 9 ;
10 [label="X[86] <= 0.5\nsquared_error = 0.158\nsamples = 3621\nvalue = 3.597"] ;
9 -> 10 ;
11 [label="X[63] <= 0.5\nsquared_error = 0.157\nsamples = 3540\nvalue = 3.592"] ;
10 -> 11 ;
12 [label="X[71] <= 0.5\nsquared_error = 0.161\nsamples = 3057\nvalue = 3.581"] ;
11 -> 12 ;
13 [label="X[94] <= 0.5\nsquared_error = 0.164\nsamples = 2239\nvalue = 3.605"] ;
12 -> 13 ;
14 [label="X[92] <= 0.5\nsquared_error = 0.162\nsamples = 2233\nvalue = 3.603"] ;
13 -> 14 ;
15 [label="X[77] <= 0.5\nsquared_error = 0.16\nsamples = 2168\nvalue = 3.597"] ;
14 -> 15 ;
16 [label="X[87] <= 0.5\nsquared_error = 0.159\nsamples = 2159\nvalue = 3.595"] ;
15 -> 16 ;
17 [label="X[40] <= 0.5\nsquared_error = 0.153\nsamples = 1396\nvalue = 3.618"] ;
16 -> 17 ;
18 [label="X[11] <= 0.5\nsquared_error = 0.146\nsamples = 1341\nvalue = 3.609"] ;
17 -> 18 ;
19 [label="X[1] <= 0.5\nsquared_error = 0.144\nsamples = 1294\nvalue = 3.602"] ;
18 -> 19 ;
20 [label="X[88] <= 0.5\nsquared_error = 0.138\nsamples = 1183\nvalue = 3.591"] ;
19 -> 20 ;
21 [label="X[5] <= 0.5\nsquared_error = 0.131\nsamples = 1122\nvalue = 3.584"] ;
20 -> 21 ;
22 [label="X[24] <= 0.5\nsquared_error = 0.128\nsamples = 1097\nvalue = 3.579"] ;
21 -> 22 ;
23 [label="X[26] <= 0.5\nsquared_error = 0.122\nsamples = 1028\nvalue = 3.571"] ;
22 -> 23 ;
24 [label="X[41] <= 0.5\nsquared_error = 0.12\nsamples = 980\nvalue = 3.564"] ;
23 -> 24 ;
25 [label="X[56] <= 0.5\nsquared_error = 0.118\nsamples = 928\nvalue = 3.571"] ;
24 -> 25 ;
26 [label="X[83] <= 0.5\nsquared_error = 0.117\nsamples = 914\nvalue = 3.568"] ;
25 -> 26 ;
27 [label="X[48] <= 0.5\nsquared_error = 0.115\nsamples = 908\nvalue = 3.571"] ;
26 -> 27 ;
28 [label="X[49] <= 0.5\nsquared_error = 0.113\nsamples = 878\nvalue = 3.576"] ;
27 -> 28 ;
29 [label="X[60] <= 0.5\nsquared_error = 0.112\nsamples = 871\nvalue = 3.573"] ;
28 -> 29 ;
30 [label="X[89] <= 0.5\nsquared_error = 0.111\nsamples = 865\nvalue = 3.572"] ;
29 -> 30 ;
31 [label="X[8] <= 0.5\nsquared_error = 0.111\nsamples = 827\nvalue = 3.577"] ;
30 -> 31 ;
32 [label="X[27] <= 0.5\nsquared_error = 0.11\nsamples = 788\nvalue = 3.57"] ;
31 -> 32 ;
33 [label="X[57] <= 0.5\nsquared_error = 0.11\nsamples = 779\nvalue = 3.572"] ;
32 -> 33 ;
34 [label="X[14] <= 0.5\nsquared_error = 0.112\nsamples = 748\nvalue = 3.577"] ;
33 -> 34 ;
35 [label="X[20] <= 0.5\nsquared_error = 0.112\nsamples = 744\nvalue = 3.578"] ;
34 -> 35 ;
36 [label="X[4] <= 0.5\nsquared_error = 0.112\nsamples = 716\nvalue = 3.582"] ;
35 -> 36 ;
37 [label="X[98] <= 0.5\nsquared_error = 0.093\nsamples = 320\nvalue = 3.558"] ;
36 -> 37 ;
38 [label="X[42] <= 0.5\nsquared_error = 0.089\nsamples = 312\nvalue = 3.566"] ;
37 -> 38 ;
39 [label="X[28] <= 0.5\nsquared_error = 0.088\nsamples = 305\nvalue = 3.571"] ;
38 -> 39 ;
40 [label="X[93] <= 0.5\nsquared_error = 0.087\nsamples = 300\nvalue = 3.575"] ;
39 -> 40 ;
41 [label="X[35] <= 0.5\nsquared_error = 0.084\nsamples = 255\nvalue = 3.561"] ;
40 -> 41 ;
42 [label="X[51] <= 0.5\nsquared_error = 0.084\nsamples = 252\nvalue = 3.557"] ;
41 -> 42 ;
43 [label="X[95] <= 0.5\nsquared_error = 0.083\nsamples = 248\nvalue = 3.562"] ;
42 -> 43 ;
44 [label="X[21] <= 0.5\nsquared_error = 0.072\nsamples = 169\nvalue = 3.538"] ;
43 -> 44 ;
45 [label="squared_error = 0.07\nsamples = 167\nvalue = 3.532"] ;
44 -> 45 ;
46 [label="squared_error = 0.04\nsamples = 2\nvalue = 4.0"] ;
44 -> 46 ;
47 [label="squared_error = 0.103\nsamples = 79\nvalue = 3.613"] ;
43 -> 47 ;
48 [label="squared_error = 0.012\nsamples = 4\nvalue = 3.275"] ;
42 -> 48 ;
49 [label="squared_error = 0.047\nsamples = 3\nvalue = 3.9"] ;
41 -> 49 ;
50 [label="squared_error = 0.091\nsamples = 45\nvalue = 3.656"] ;
40 -> 50 ;
51 [label="squared_error = 0.086\nsamples = 5\nvalue = 3.32"] ;
39 -> 51 ;
52 [label="squared_error = 0.117\nsamples = 7\nvalue = 3.343"] ;
38 -> 52 ;
53 [label="squared_error = 0.132\nsamples = 8\nvalue = 3.262"] ;
37 -> 53 ;
54 [label="X[78] <= 0.5\nsquared_error = 0.126\nsamples = 396\nvalue = 3.601"] ;
36 -> 54 ;
55 [label="X[3] <= 0.5\nsquared_error = 0.125\nsamples = 387\nvalue = 3.607"] ;
54 -> 55 ;
56 [label="X[50] <= 0.5\nsquared_error = 0.125\nsamples = 371\nvalue = 3.6"] ;
55 -> 56 ;
57 [label="X[31] <= 0.5\nsquared_error = 0.126\nsamples = 366\nvalue = 3.604"] ;
56 -> 57 ;
58 [label="X[95] <= 0.5\nsquared_error = 0.126\nsamples = 360\nvalue = 3.6"] ;
57 -> 58 ;
59 [label="X[51] <= 0.5\nsquared_error = 0.133\nsamples = 315\nvalue = 3.611"] ;
58 -> 59 ;
60 [label="X[15] <= 0.5\nsquared_error = 0.131\nsamples = 313\nvalue = 3.608"] ;
59 -> 60 ;
61 [label="X[93] <= 0.5\nsquared_error = 0.13\nsamples = 307\nvalue = 3.612"] ;
60 -> 61 ;
62 [label="squared_error = 0.134\nsamples = 122\nvalue = 3.652"] ;
61 -> 62 ;
63 [label="squared_error = 0.125\nsamples = 185\nvalue = 3.585"] ;
61 -> 63 ;
64 [label="squared_error = 0.155\nsamples = 6\nvalue = 3.383"] ;
60 -> 64 ;
65 [label="squared_error = 0.04\nsamples = 2\nvalue = 4.2"] ;
59 -> 65 ;
66 [label="squared_error = 0.072\nsamples = 45\nvalue = 3.52"] ;
58 -> 66 ;
67 [label="squared_error = 0.076\nsamples = 6\nvalue = 3.833"] ;
57 -> 67 ;
68 [label="squared_error = 0.002\nsamples = 5\nvalue = 3.34"] ;
56 -> 68 ;
69 [label="squared_error = 0.097\nsamples = 16\nvalue = 3.769"] ;
55 -> 69 ;
70 [label="squared_error = 0.078\nsamples = 9\nvalue = 3.333"] ;
54 -> 70 ;
71 [label="squared_error = 0.104\nsamples = 28\nvalue = 3.479"] ;
35 -> 71 ;
72 [label="squared_error = 0.045\nsamples = 4\nvalue = 3.3"] ;
34 -> 72 ;
73 [label="squared_error = 0.056\nsamples = 31\nvalue = 3.468"] ;
33 -> 73 ;
74 [label="squared_error = 0.071\nsamples = 9\nvalue = 3.367"] ;
32 -> 74 ;
75 [label="squared_error = 0.109\nsamples = 39\nvalue = 3.71"] ;
31 -> 75 ;
76 [label="squared_error = 0.109\nsamples = 38\nvalue = 3.466"] ;
30 -> 76 ;
77 [label="squared_error = 0.092\nsamples = 6\nvalue = 3.833"] ;
29 -> 77 ;
78 [label="squared_error = 0.242\nsamples = 7\nvalue = 3.871"] ;
28 -> 78 ;
79 [label="squared_error = 0.134\nsamples = 30\nvalue = 3.423"] ;
27 -> 79 ;
80 [label="squared_error = 0.265\nsamples = 6\nvalue = 3.083"] ;
26 -> 80 ;
81 [label="squared_error = 0.092\nsamples = 14\nvalue = 3.793"] ;
25 -> 81 ;
82 [label="squared_error = 0.138\nsamples = 52\nvalue = 3.444"] ;
24 -> 82 ;
83 [label="squared_error = 0.143\nsamples = 48\nvalue = 3.704"] ;
23 -> 83 ;
84 [label="squared_error = 0.204\nsamples = 69\nvalue = 3.699"] ;
22 -> 84 ;
85 [label="squared_error = 0.223\nsamples = 25\nvalue = 3.804"] ;
21 -> 85 ;
86 [label="squared_error = 0.247\nsamples = 61\nvalue = 3.731"] ;
20 -> 86 ;
87 [label="squared_error = 0.199\nsamples = 111\nvalue = 3.714"] ;
19 -> 87 ;
88 [label="squared_error = 0.161\nsamples = 47\nvalue = 3.802"] ;
18 -> 88 ;
89 [label="squared_error = 0.266\nsamples = 55\nvalue = 3.827"] ;
17 -> 89 ;
90 [label="X[74] <= 0.5\nsquared_error = 0.167\nsamples = 763\nvalue = 3.552"] ;
16 -> 90 ;
91 [label="X[13] <= 0.5\nsquared_error = 0.165\nsamples = 755\nvalue = 3.557"] ;
90 -> 91 ;
92 [label="X[29] <= 0.5\nsquared_error = 0.161\nsamples = 717\nvalue = 3.567"] ;
91 -> 92 ;
93 [label="X[34] <= 0.5\nsquared_error = 0.161\nsamples = 705\nvalue = 3.562"] ;
92 -> 93 ;
94 [label="X[37] <= 0.5\nsquared_error = 0.161\nsamples = 693\nvalue = 3.557"] ;
93 -> 94 ;
95 [label="X[8] <= 0.5\nsquared_error = 0.16\nsamples = 691\nvalue = 3.555"] ;
94 -> 95 ;
96 [label="X[17] <= 0.5\nsquared_error = 0.159\nsamples = 675\nvalue = 3.56"] ;
95 -> 96 ;
97 [label="X[35] <= 0.5\nsquared_error = 0.159\nsamples = 668\nvalue = 3.556"] ;
96 -> 97 ;
98 [label="X[26] <= 0.5\nsquared_error = 0.159\nsamples = 657\nvalue = 3.552"] ;
97 -> 98 ;
99 [label="X[44] <= 0.5\nsquared_error = 0.161\nsamples = 638\nvalue = 3.546"] ;
98 -> 99 ;
100 [label="X[5] <= 0.5\nsquared_error = 0.161\nsamples = 629\nvalue = 3.542"] ;
99 -> 100 ;
101 [label="X[18] <= 0.5\nsquared_error = 0.16\nsamples = 628\nvalue = 3.541"] ;
100 -> 101 ;
102 [label="X[46] <= 0.5\nsquared_error = 0.16\nsamples = 626\nvalue = 3.539"] ;
101 -> 102 ;
103 [label="X[93] <= 0.5\nsquared_error = 0.159\nsamples = 624\nvalue = 3.537"] ;
102 -> 103 ;
104 [label="X[19] <= 0.5\nsquared_error = 0.172\nsamples = 522\nvalue = 3.553"] ;
103 -> 104 ;
105 [label="X[84] <= 0.5\nsquared_error = 0.172\nsamples = 516\nvalue = 3.557"] ;
104 -> 105 ;
106 [label="X[24] <= 0.5\nsquared_error = 0.174\nsamples = 506\nvalue = 3.561"] ;
105 -> 106 ;
107 [label="X[89] <= 0.5\nsquared_error = 0.173\nsamples = 476\nvalue = 3.553"] ;
106 -> 107 ;
108 [label="X[91] <= 0.5\nsquared_error = 0.17\nsamples = 469\nvalue = 3.549"] ;
107 -> 108 ;
109 [label="X[20] <= 0.5\nsquared_error = 0.17\nsamples = 465\nvalue = 3.546"] ;
108 -> 109 ;
110 [label="X[80] <= 0.5\nsquared_error = 0.169\nsamples = 438\nvalue = 3.554"] ;
109 -> 110 ;
111 [label="X[45] <= 0.5\nsquared_error = 0.17\nsamples = 431\nvalue = 3.549"] ;
110 -> 111 ;
112 [label="X[27] <= 0.5\nsquared_error = 0.17\nsamples = 428\nvalue = 3.546"] ;
111 -> 112 ;
113 [label="X[14] <= 0.5\nsquared_error = 0.169\nsamples = 424\nvalue = 3.549"] ;
112 -> 113 ;
114 [label="X[21] <= 0.5\nsquared_error = 0.17\nsamples = 420\nvalue = 3.552"] ;
113 -> 114 ;
115 [label="X[28] <= 0.5\nsquared_error = 0.169\nsamples = 416\nvalue = 3.549"] ;
114 -> 115 ;
116 [label="X[55] <= 0.5\nsquared_error = 0.169\nsamples = 414\nvalue = 3.548"] ;
115 -> 116 ;
117 [label="X[95] <= 0.5\nsquared_error = 0.169\nsamples = 411\nvalue = 3.55"] ;
116 -> 117 ;
118 [label="squared_error = 0.168\nsamples = 369\nvalue = 3.541"] ;
117 -> 118 ;
119 [label="squared_error = 0.179\nsamples = 42\nvalue = 3.626"] ;
117 -> 119 ;
120 [label="squared_error = 0.096\nsamples = 3\nvalue = 3.267"] ;
116 -> 120 ;
121 [label="squared_error = 0.01\nsamples = 2\nvalue = 3.9"] ;
115 -> 121 ;
122 [label="squared_error = 0.195\nsamples = 4\nvalue = 3.8"] ;
114 -> 122 ;
123 [label="squared_error = 0.002\nsamples = 4\nvalue = 3.275"] ;
113 -> 123 ;
124 [label="squared_error = 0.182\nsamples = 4\nvalue = 3.275"] ;
112 -> 124 ;
125 [label="squared_error = 0.016\nsamples = 3\nvalue = 3.867"] ;
111 -> 125 ;
126 [label="squared_error = 0.025\nsamples = 7\nvalue = 3.857"] ;
110 -> 126 ;
127 [label="squared_error = 0.171\nsamples = 27\nvalue = 3.422"] ;
109 -> 127 ;
128 [label="squared_error = 0.025\nsamples = 4\nvalue = 3.9"] ;
108 -> 128 ;
129 [label="squared_error = 0.331\nsamples = 7\nvalue = 3.843"] ;
107 -> 129 ;
130 [label="squared_error = 0.161\nsamples = 30\nvalue = 3.683"] ;
106 -> 130 ;
131 [label="squared_error = 0.056\nsamples = 10\nvalue = 3.33"] ;
105 -> 131 ;
132 [label="squared_error = 0.052\nsamples = 6\nvalue = 3.233"] ;
104 -> 132 ;
133 [label="squared_error = 0.086\nsamples = 102\nvalue = 3.458"] ;
103 -> 133 ;
134 [label="squared_error = 0.0\nsamples = 2\nvalue = 4.1"] ;
102 -> 134 ;
135 [label="squared_error = 0.01\nsamples = 2\nvalue = 4.1"] ;
101 -> 135 ;
136 [label="squared_error = 0.0\nsamples = 1\nvalue = 4.4"] ;
100 -> 136 ;
137 [label="squared_error = 0.051\nsamples = 9\nvalue = 3.833"] ;
99 -> 137 ;
138 [label="squared_error = 0.061\nsamples = 19\nvalue = 3.747"] ;
98 -> 138 ;
139 [label="squared_error = 0.068\nsamples = 11\nvalue = 3.809"] ;
97 -> 139 ;
140 [label="squared_error = 0.037\nsamples = 7\nvalue = 3.9"] ;
96 -> 140 ;
141 [label="squared_error = 0.174\nsamples = 16\nvalue = 3.325"] ;
95 -> 141 ;
142 [label="squared_error = 0.062\nsamples = 2\nvalue = 4.25"] ;
94 -> 142 ;
143 [label="squared_error = 0.049\nsamples = 12\nvalue = 3.858"] ;
93 -> 143 ;
144 [label="squared_error = 0.081\nsamples = 12\nvalue = 3.867"] ;
92 -> 144 ;
145 [label="squared_error = 0.206\nsamples = 38\nvalue = 3.376"] ;
91 -> 145 ;
146 [label="squared_error = 0.099\nsamples = 8\nvalue = 3.088"] ;
90 -> 146 ;
147 [label="squared_error = 0.102\nsamples = 9\nvalue = 4.156"] ;
15 -> 147 ;
148 [label="squared_error = 0.197\nsamples = 65\nvalue = 3.818"] ;
14 -> 148 ;
149 [label="squared_error = 0.191\nsamples = 6\nvalue = 4.317"] ;
13 -> 149 ;
150 [label="X[83] <= 0.5\nsquared_error = 0.146\nsamples = 818\nvalue = 3.514"] ;
12 -> 150 ;
151 [label="X[91] <= 0.5\nsquared_error = 0.144\nsamples = 798\nvalue = 3.503"] ;
150 -> 151 ;
152 [label="X[65] <= 0.5\nsquared_error = 0.143\nsamples = 767\nvalue = 3.495"] ;
151 -> 152 ;
153 [label="X[2] <= 0.5\nsquared_error = 0.141\nsamples = 636\nvalue = 3.478"] ;
152 -> 153 ;
154 [label="X[66] <= 0.5\nsquared_error = 0.144\nsamples = 173\nvalue = 3.413"] ;
153 -> 154 ;
155 [label="X[24] <= 0.5\nsquared_error = 0.13\nsamples = 136\nvalue = 3.46"] ;
154 -> 155 ;
156 [label="X[31] <= 0.5\nsquared_error = 0.123\nsamples = 129\nvalue = 3.482"] ;
155 -> 156 ;
157 [label="X[4] <= 0.5\nsquared_error = 0.117\nsamples = 128\nvalue = 3.489"] ;
156 -> 157 ;
158 [label="squared_error = 0.115\nsamples = 11\nvalue = 3.7"] ;
157 -> 158 ;
159 [label="squared_error = 0.113\nsamples = 117\nvalue = 3.469"] ;
157 -> 159 ;
160 [label="squared_error = -0.0\nsamples = 1\nvalue = 2.6"] ;
156 -> 160 ;
161 [label="squared_error = 0.097\nsamples = 7\nvalue = 3.057"] ;
155 -> 161 ;
162 [label="squared_error = 0.156\nsamples = 37\nvalue = 3.238"] ;
154 -> 162 ;
163 [label="X[88] <= 0.5\nsquared_error = 0.137\nsamples = 463\nvalue = 3.503"] ;
153 -> 163 ;
164 [label="X[41] <= 0.5\nsquared_error = 0.132\nsamples = 425\nvalue = 3.517"] ;
163 -> 164 ;
165 [label="X[30] <= 0.5\nsquared_error = 0.132\nsamples = 409\nvalue = 3.525"] ;
164 -> 165 ;
166 [label="X[26] <= 0.5\nsquared_error = 0.131\nsamples = 404\nvalue = 3.521"] ;
165 -> 166 ;
167 [label="X[1] <= 0.5\nsquared_error = 0.129\nsamples = 388\nvalue = 3.514"] ;
166 -> 167 ;
168 [label="X[48] <= 0.5\nsquared_error = 0.13\nsamples = 365\nvalue = 3.505"] ;
167 -> 168 ;
169 [label="X[36] <= 0.5\nsquared_error = 0.129\nsamples = 349\nvalue = 3.513"] ;
168 -> 169 ;
170 [label="X[9] <= 0.5\nsquared_error = 0.13\nsamples = 345\nvalue = 3.517"] ;
169 -> 170 ;
171 [label="X[79] <= 0.5\nsquared_error = 0.128\nsamples = 340\nvalue = 3.521"] ;
170 -> 171 ;
172 [label="X[13] <= 0.5\nsquared_error = 0.127\nsamples = 337\nvalue = 3.518"] ;
171 -> 172 ;
173 [label="X[95] <= 0.5\nsquared_error = 0.126\nsamples = 325\nvalue = 3.524"] ;
172 -> 173 ;
174 [label="X[25] <= 0.5\nsquared_error = 0.125\nsamples = 284\nvalue = 3.508"] ;
173 -> 174 ;
175 [label="X[20] <= 0.5\nsquared_error = 0.123\nsamples = 272\nvalue = 3.518"] ;
174 -> 175 ;
176 [label="X[23] <= 0.5\nsquared_error = 0.121\nsamples = 253\nvalue = 3.527"] ;
175 -> 176 ;
177 [label="X[16] <= 0.5\nsquared_error = 0.121\nsamples = 251\nvalue = 3.524"] ;
176 -> 177 ;
178 [label="X[32] <= 0.5\nsquared_error = 0.122\nsamples = 246\nvalue = 3.52"] ;
177 -> 178 ;
179 [label="X[78] <= 0.5\nsquared_error = 0.122\nsamples = 245\nvalue = 3.522"] ;
178 -> 179 ;
180 [label="X[24] <= 0.5\nsquared_error = 0.124\nsamples = 235\nvalue = 3.514"] ;
179 -> 180 ;
181 [label="X[17] <= 0.5\nsquared_error = 0.121\nsamples = 218\nvalue = 3.505"] ;
180 -> 181 ;
182 [label="X[62] <= 0.5\nsquared_error = 0.122\nsamples = 215\nvalue = 3.501"] ;
181 -> 182 ;
183 [label="X[66] <= 0.5\nsquared_error = 0.121\nsamples = 214\nvalue = 3.503"] ;
182 -> 183 ;
184 [label="X[27] <= 0.5\nsquared_error = 0.122\nsamples = 203\nvalue = 3.511"] ;
183 -> 184 ;
185 [label="X[12] <= 0.5\nsquared_error = 0.121\nsamples = 199\nvalue = 3.507"] ;
184 -> 185 ;
186 [label="X[49] <= 0.5\nsquared_error = 0.12\nsamples = 198\nvalue = 3.509"] ;
185 -> 186 ;
187 [label="X[37] <= 0.5\nsquared_error = 0.12\nsamples = 197\nvalue = 3.507"] ;
186 -> 187 ;
188 [label="X[90] <= 0.5\nsquared_error = 0.12\nsamples = 196\nvalue = 3.505"] ;
187 -> 188 ;
189 [label="X[40] <= 0.5\nsquared_error = 0.113\nsamples = 189\nvalue = 3.511"] ;
188 -> 189 ;
190 [label="X[84] <= 0.5\nsquared_error = 0.114\nsamples = 181\nvalue = 3.503"] ;
189 -> 190 ;
191 [label="squared_error = 0.115\nsamples = 177\nvalue = 3.497"] ;
190 -> 191 ;
192 [label="squared_error = 0.032\nsamples = 4\nvalue = 3.75"] ;
190 -> 192 ;
193 [label="squared_error = 0.045\nsamples = 8\nvalue = 3.7"] ;
189 -> 193 ;
194 [label="squared_error = 0.285\nsamples = 7\nvalue = 3.329"] ;
188 -> 194 ;
195 [label="squared_error = 0.0\nsamples = 1\nvalue = 3.9"] ;
187 -> 195 ;
196 [label="squared_error = 0.0\nsamples = 1\nvalue = 3.9"] ;
186 -> 196 ;
197 [label="squared_error = -0.0\nsamples = 1\nvalue = 3.1"] ;
185 -> 197 ;
198 [label="squared_error = 0.122\nsamples = 4\nvalue = 3.725"] ;
184 -> 198 ;
199 [label="squared_error = 0.091\nsamples = 11\nvalue = 3.364"] ;
183 -> 199 ;
200 [label="squared_error = 0.0\nsamples = 1\nvalue = 3.0"] ;
182 -> 200 ;
201 [label="squared_error = 0.007\nsamples = 3\nvalue = 3.8"] ;
181 -> 201 ;
202 [label="squared_error = 0.135\nsamples = 17\nvalue = 3.635"] ;
180 -> 202 ;
203 [label="squared_error = 0.045\nsamples = 10\nvalue = 3.69"] ;
179 -> 203 ;
204 [label="squared_error = -0.0\nsamples = 1\nvalue = 3.0"] ;
178 -> 204 ;
205 [label="squared_error = 0.01\nsamples = 5\nvalue = 3.76"] ;
177 -> 205 ;
206 [label="squared_error = 0.01\nsamples = 2\nvalue = 3.9"] ;
176 -> 206 ;
207 [label="squared_error = 0.128\nsamples = 19\nvalue = 3.395"] ;
175 -> 207 ;
208 [label="squared_error = 0.128\nsamples = 12\nvalue = 3.283"] ;
174 -> 208 ;
209 [label="squared_error = 0.114\nsamples = 41\nvalue = 3.634"] ;
173 -> 209 ;
210 [label="squared_error = 0.146\nsamples = 12\nvalue = 3.35"] ;
172 -> 210 ;
211 [label="squared_error = 0.007\nsamples = 3\nvalue = 3.9"] ;
171 -> 211 ;
212 [label="squared_error = 0.17\nsamples = 5\nvalue = 3.22"] ;
170 -> 212 ;
213 [label="squared_error = 0.012\nsamples = 4\nvalue = 3.175"] ;
169 -> 213 ;
214 [label="squared_error = 0.121\nsamples = 16\nvalue = 3.331"] ;
168 -> 214 ;
215 [label="squared_error = 0.078\nsamples = 23\nvalue = 3.652"] ;
167 -> 215 ;
216 [label="squared_error = 0.162\nsamples = 16\nvalue = 3.7"] ;
166 -> 216 ;
217 [label="squared_error = 0.086\nsamples = 5\nvalue = 3.86"] ;
165 -> 217 ;
218 [label="squared_error = 0.102\nsamples = 16\nvalue = 3.319"] ;
164 -> 218 ;
219 [label="squared_error = 0.16\nsamples = 38\nvalue = 3.337"] ;
163 -> 219 ;
220 [label="X[66] <= 0.5\nsquared_error = 0.145\nsamples = 131\nvalue = 3.575"] ;
152 -> 220 ;
221 [label="squared_error = 0.142\nsamples = 119\nvalue = 3.541"] ;
220 -> 221 ;
222 [label="squared_error = 0.054\nsamples = 12\nvalue = 3.908"] ;
220 -> 222 ;
223 [label="squared_error = 0.125\nsamples = 31\nvalue = 3.716"] ;
151 -> 223 ;
224 [label="squared_error = 0.055\nsamples = 20\nvalue = 3.95"] ;
150 -> 224 ;
225 [label="X[26] <= 0.5\nsquared_error = 0.127\nsamples = 483\nvalue = 3.665"] ;
11 -> 225 ;
226 [label="X[24] <= 0.5\nsquared_error = 0.12\nsamples = 457\nvalue = 3.648"] ;
225 -> 226 ;
227 [label="X[56] <= 0.5\nsquared_error = 0.116\nsamples = 431\nvalue = 3.634"] ;
226 -> 227 ;
228 [label="X[17] <= 0.5\nsquared_error = 0.114\nsamples = 430\nvalue = 3.632"] ;
227 -> 228 ;
229 [label="X[41] <= 0.5\nsquared_error = 0.112\nsamples = 423\nvalue = 3.626"] ;
228 -> 229 ;
230 [label="X[65] <= 0.5\nsquared_error = 0.11\nsamples = 399\nvalue = 3.636"] ;
229 -> 230 ;
231 [label="X[87] <= 0.5\nsquared_error = 0.113\nsamples = 363\nvalue = 3.623"] ;
230 -> 231 ;
232 [label="X[3] <= 0.5\nsquared_error = 0.11\nsamples = 337\nvalue = 3.611"] ;
231 -> 232 ;
233 [label="X[88] <= 0.5\nsquared_error = 0.097\nsamples = 292\nvalue = 3.593"] ;
232 -> 233 ;
234 [label="X[12] <= 0.5\nsquared_error = 0.093\nsamples = 286\nvalue = 3.602"] ;
233 -> 234 ;
235 [label="X[71] <= 0.5\nsquared_error = 0.092\nsamples = 284\nvalue = 3.606"] ;
234 -> 235 ;
236 [label="X[18] <= 0.5\nsquared_error = 0.093\nsamples = 143\nvalue = 3.564"] ;
235 -> 236 ;
237 [label="X[35] <= 0.5\nsquared_error = 0.089\nsamples = 142\nvalue = 3.569"] ;
236 -> 237 ;
238 [label="X[27] <= 0.5\nsquared_error = 0.086\nsamples = 135\nvalue = 3.556"] ;
237 -> 238 ;
239 [label="X[96] <= 0.5\nsquared_error = 0.084\nsamples = 133\nvalue = 3.548"] ;
238 -> 239 ;
240 [label="squared_error = 0.079\nsamples = 123\nvalue = 3.563"] ;
239 -> 240 ;
241 [label="squared_error = 0.108\nsamples = 10\nvalue = 3.36"] ;
239 -> 241 ;
242 [label="squared_error = 0.002\nsamples = 2\nvalue = 4.05"] ;
238 -> 242 ;
243 [label="squared_error = 0.079\nsamples = 7\nvalue = 3.829"] ;
237 -> 243 ;
244 [label="squared_error = 0.0\nsamples = 1\nvalue = 2.8"] ;
236 -> 244 ;
245 [label="X[73] <= 0.5\nsquared_error = 0.087\nsamples = 141\nvalue = 3.648"] ;
235 -> 245 ;
246 [label="X[96] <= 0.5\nsquared_error = 0.08\nsamples = 140\nvalue = 3.656"] ;
245 -> 246 ;
247 [label="squared_error = 0.078\nsamples = 120\nvalue = 3.623"] ;
246 -> 247 ;
248 [label="squared_error = 0.044\nsamples = 20\nvalue = 3.85"] ;
246 -> 248 ;
249 [label="squared_error = -0.0\nsamples = 1\nvalue = 2.6"] ;
245 -> 249 ;
250 [label="squared_error = 0.01\nsamples = 2\nvalue = 3.1"] ;
234 -> 250 ;
251 [label="squared_error = 0.112\nsamples = 6\nvalue = 3.167"] ;
233 -> 251 ;
252 [label="squared_error = 0.177\nsamples = 45\nvalue = 3.724"] ;
232 -> 252 ;
253 [label="squared_error = 0.129\nsamples = 26\nvalue = 3.781"] ;
231 -> 253 ;
254 [label="squared_error = 0.056\nsamples = 36\nvalue = 3.764"] ;
230 -> 254 ;
255 [label="squared_error = 0.119\nsamples = 24\nvalue = 3.462"] ;
229 -> 255 ;
256 [label="squared_error = 0.104\nsamples = 7\nvalue = 3.986"] ;
228 -> 256 ;
257 [label="squared_error = 0.0\nsamples = 1\nvalue = 4.6"] ;
227 -> 257 ;
258 [label="squared_error = 0.133\nsamples = 26\nvalue = 3.888"] ;
226 -> 258 ;
259 [label="squared_error = 0.154\nsamples = 26\nvalue = 3.95"] ;
225 -> 259 ;
260 [label="squared_error = 0.182\nsamples = 81\nvalue = 3.812"] ;
10 -> 260 ;
261 [label="squared_error = 0.155\nsamples = 21\nvalue = 4.067"] ;
9 -> 261 ;
262 [label="squared_error = 0.17\nsamples = 81\nvalue = 3.853"] ;
8 -> 262 ;
263 [label="squared_error = 0.199\nsamples = 60\nvalue = 3.912"] ;
7 -> 263 ;
264 [label="X[14] <= 0.5\nsquared_error = 0.163\nsamples = 758\nvalue = 3.51"] ;
6 -> 264 ;
265 [label="X[92] <= 0.5\nsquared_error = 0.156\nsamples = 747\nvalue = 3.52"] ;
264 -> 265 ;
266 [label="X[95] <= 0.5\nsquared_error = 0.153\nsamples = 701\nvalue = 3.505"] ;
265 -> 266 ;
267 [label="X[71] <= 0.5\nsquared_error = 0.151\nsamples = 699\nvalue = 3.508"] ;
266 -> 267 ;
268 [label="X[26] <= 0.5\nsquared_error = 0.152\nsamples = 624\nvalue = 3.492"] ;
267 -> 268 ;
269 [label="X[53] <= 0.5\nsquared_error = 0.152\nsamples = 604\nvalue = 3.483"] ;
268 -> 269 ;
270 [label="X[33] <= 0.5\nsquared_error = 0.151\nsamples = 602\nvalue = 3.481"] ;
269 -> 270 ;
271 [label="X[80] <= 0.5\nsquared_error = 0.148\nsamples = 588\nvalue = 3.475"] ;
270 -> 271 ;
272 [label="X[32] <= 0.5\nsquared_error = 0.147\nsamples = 571\nvalue = 3.469"] ;
271 -> 272 ;
273 [label="X[2] <= 0.5\nsquared_error = 0.146\nsamples = 567\nvalue = 3.465"] ;
272 -> 273 ;
274 [label="squared_error = 0.105\nsamples = 93\nvalue = 3.389"] ;
273 -> 274 ;
275 [label="X[47] <= 0.5\nsquared_error = 0.153\nsamples = 474\nvalue = 3.48"] ;
273 -> 275 ;
276 [label="X[30] <= 0.5\nsquared_error = 0.152\nsamples = 469\nvalue = 3.476"] ;
275 -> 276 ;
277 [label="X[22] <= 0.5\nsquared_error = 0.151\nsamples = 465\nvalue = 3.473"] ;
276 -> 277 ;
278 [label="X[73] <= 0.5\nsquared_error = 0.149\nsamples = 434\nvalue = 3.464"] ;
277 -> 278 ;
279 [label="X[79] <= 0.5\nsquared_error = 0.149\nsamples = 433\nvalue = 3.462"] ;
278 -> 279 ;
280 [label="X[60] <= 0.5\nsquared_error = 0.149\nsamples = 359\nvalue = 3.448"] ;
279 -> 280 ;
281 [label="X[10] <= 0.5\nsquared_error = 0.147\nsamples = 358\nvalue = 3.446"] ;
280 -> 281 ;
282 [label="X[93] <= 0.5\nsquared_error = 0.148\nsamples = 335\nvalue = 3.436"] ;
281 -> 282 ;
283 [label="X[17] <= 0.5\nsquared_error = 0.161\nsamples = 272\nvalue = 3.421"] ;
282 -> 283 ;
284 [label="X[28] <= 0.5\nsquared_error = 0.161\nsamples = 271\nvalue = 3.423"] ;
283 -> 284 ;
285 [label="X[57] <= 0.5\nsquared_error = 0.16\nsamples = 270\nvalue = 3.425"] ;
284 -> 285 ;
286 [label="X[8] <= 0.5\nsquared_error = 0.165\nsamples = 222\nvalue = 3.41"] ;
285 -> 286 ;
287 [label="X[62] <= 0.5\nsquared_error = 0.166\nsamples = 219\nvalue = 3.406"] ;
286 -> 287 ;
288 [label="X[46] <= 0.5\nsquared_error = 0.166\nsamples = 218\nvalue = 3.404"] ;
287 -> 288 ;
289 [label="X[4] <= 0.5\nsquared_error = 0.166\nsamples = 214\nvalue = 3.399"] ;
288 -> 289 ;
290 [label="squared_error = 0.195\nsamples = 86\nvalue = 3.355"] ;
289 -> 290 ;
291 [label="X[24] <= 0.5\nsquared_error = 0.144\nsamples = 128\nvalue = 3.429"] ;
289 -> 291 ;
292 [label="squared_error = 0.137\nsamples = 121\nvalue = 3.444"] ;
291 -> 292 ;
293 [label="squared_error = 0.202\nsamples = 7\nvalue = 3.171"] ;
291 -> 293 ;
294 [label="squared_error = 0.092\nsamples = 4\nvalue = 3.65"] ;
288 -> 294 ;
295 [label="squared_error = 0.0\nsamples = 1\nvalue = 3.9"] ;
287 -> 295 ;
296 [label="squared_error = 0.027\nsamples = 3\nvalue = 3.7"] ;
286 -> 296 ;
297 [label="squared_error = 0.13\nsamples = 48\nvalue = 3.496"] ;
285 -> 297 ;
298 [label="squared_error = -0.0\nsamples = 1\nvalue = 2.9"] ;
284 -> 298 ;
299 [label="squared_error = 0.0\nsamples = 1\nvalue = 2.9"] ;
283 -> 299 ;
300 [label="squared_error = 0.087\nsamples = 63\nvalue = 3.502"] ;
282 -> 300 ;
301 [label="squared_error = 0.115\nsamples = 23\nvalue = 3.583"] ;
281 -> 301 ;
302 [label="squared_error = -0.0\nsamples = 1\nvalue = 4.3"] ;
280 -> 302 ;
303 [label="squared_error = 0.142\nsamples = 74\nvalue = 3.531"] ;
279 -> 303 ;
304 [label="squared_error = 0.0\nsamples = 1\nvalue = 4.1"] ;
278 -> 304 ;
305 [label="squared_error = 0.166\nsamples = 31\nvalue = 3.6"] ;
277 -> 305 ;
306 [label="squared_error = 0.063\nsamples = 4\nvalue = 3.85"] ;
276 -> 306 ;
307 [label="squared_error = 0.102\nsamples = 5\nvalue = 3.88"] ;
275 -> 307 ;
308 [label="squared_error = 0.027\nsamples = 4\nvalue = 3.925"] ;
272 -> 308 ;
309 [label="squared_error = 0.124\nsamples = 17\nvalue = 3.694"] ;
271 -> 309 ;
310 [label="squared_error = 0.216\nsamples = 14\nvalue = 3.721"] ;
270 -> 310 ;
311 [label="squared_error = 0.003\nsamples = 2\nvalue = 4.15"] ;
269 -> 311 ;
312 [label="squared_error = 0.097\nsamples = 20\nvalue = 3.745"] ;
268 -> 312 ;
313 [label="squared_error = 0.12\nsamples = 75\nvalue = 3.641"] ;
267 -> 313 ;
314 [label="squared_error = 0.04\nsamples = 2\nvalue = 2.6"] ;
266 -> 314 ;
315 [label="squared_error = 0.152\nsamples = 46\nvalue = 3.757"] ;
265 -> 315 ;
316 [label="squared_error = 0.086\nsamples = 11\nvalue = 2.773"] ;
264 -> 316 ;
317 [label="X[66] <= 0.5\nsquared_error = 0.238\nsamples = 211\nvalue = 3.817"] ;
5 -> 317 ;
318 [label="X[88] <= 0.5\nsquared_error = 0.263\nsamples = 150\nvalue = 3.734"] ;
317 -> 318 ;
319 [label="squared_error = 0.175\nsamples = 93\nvalue = 3.883"] ;
318 -> 319 ;
320 [label="squared_error = 0.312\nsamples = 57\nvalue = 3.491"] ;
318 -> 320 ;
321 [label="squared_error = 0.118\nsamples = 61\nvalue = 4.02"] ;
317 -> 321 ;
322 [label="X[47] <= 0.5\nsquared_error = 0.162\nsamples = 2352\nvalue = 3.51"] ;
4 -> 322 ;
323 [label="X[33] <= 0.5\nsquared_error = 0.161\nsamples = 2337\nvalue = 3.507"] ;
322 -> 323 ;
324 [label="X[85] <= 0.5\nsquared_error = 0.16\nsamples = 2294\nvalue = 3.501"] ;
323 -> 324 ;
325 [label="X[77] <= 0.5\nsquared_error = 0.157\nsamples = 2181\nvalue = 3.492"] ;
324 -> 325 ;
326 [label="X[92] <= 0.5\nsquared_error = 0.155\nsamples = 2172\nvalue = 3.489"] ;
325 -> 326 ;
327 [label="X[41] <= 0.5\nsquared_error = 0.154\nsamples = 2008\nvalue = 3.479"] ;
326 -> 327 ;
328 [label="X[10] <= 0.5\nsquared_error = 0.152\nsamples = 1871\nvalue = 3.488"] ;
327 -> 328 ;
329 [label="X[56] <= 0.5\nsquared_error = 0.148\nsamples = 1791\nvalue = 3.496"] ;
328 -> 329 ;
330 [label="X[14] <= 0.5\nsquared_error = 0.147\nsamples = 1782\nvalue = 3.493"] ;
329 -> 330 ;
331 [label="X[26] <= 0.5\nsquared_error = 0.145\nsamples = 1761\nvalue = 3.497"] ;
330 -> 331 ;
332 [label="X[98] <= 0.5\nsquared_error = 0.143\nsamples = 1698\nvalue = 3.491"] ;
331 -> 332 ;
333 [label="X[97] <= 0.5\nsquared_error = 0.143\nsamples = 1687\nvalue = 3.493"] ;
332 -> 333 ;
334 [label="X[20] <= 0.5\nsquared_error = 0.142\nsamples = 1646\nvalue = 3.489"] ;
333 -> 334 ;
335 [label="X[63] <= 0.5\nsquared_error = 0.145\nsamples = 1515\nvalue = 3.497"] ;
334 -> 335 ;
336 [label="X[6] <= 0.5\nsquared_error = 0.144\nsamples = 1461\nvalue = 3.492"] ;
335 -> 336 ;
337 [label="X[86] <= 0.5\nsquared_error = 0.141\nsamples = 1424\nvalue = 3.487"] ;
336 -> 337 ;
338 [label="X[75] <= 0.5\nsquared_error = 0.138\nsamples = 1338\nvalue = 3.48"] ;
337 -> 338 ;
339 [label="X[84] <= 0.5\nsquared_error = 0.138\nsamples = 1335\nvalue = 3.479"] ;
338 -> 339 ;
340 [label="X[5] <= 0.5\nsquared_error = 0.138\nsamples = 1329\nvalue = 3.478"] ;
339 -> 340 ;
341 [label="X[30] <= 0.5\nsquared_error = 0.138\nsamples = 1317\nvalue = 3.48"] ;
340 -> 341 ;
342 [label="X[8] <= 0.5\nsquared_error = 0.139\nsamples = 1297\nvalue = 3.477"] ;
341 -> 342 ;
343 [label="X[48] <= 0.5\nsquared_error = 0.139\nsamples = 1265\nvalue = 3.473"] ;
342 -> 343 ;
344 [label="X[1] <= 0.5\nsquared_error = 0.14\nsamples = 1222\nvalue = 3.47"] ;
343 -> 344 ;
345 [label="X[24] <= 0.5\nsquared_error = 0.139\nsamples = 1210\nvalue = 3.468"] ;
344 -> 345 ;
346 [label="X[49] <= 0.5\nsquared_error = 0.14\nsamples = 1164\nvalue = 3.464"] ;
345 -> 346 ;
347 [label="X[65] <= 0.5\nsquared_error = 0.139\nsamples = 1158\nvalue = 3.463"] ;
346 -> 347 ;
348 [label="X[13] <= 0.5\nsquared_error = 0.139\nsamples = 1156\nvalue = 3.463"] ;
347 -> 348 ;
349 [label="X[87] <= 0.5\nsquared_error = 0.138\nsamples = 1106\nvalue = 3.467"] ;
348 -> 349 ;
350 [label="X[35] <= 0.5\nsquared_error = 0.155\nsamples = 183\nvalue = 3.514"] ;
349 -> 350 ;
351 [label="X[52] <= 0.5\nsquared_error = 0.154\nsamples = 176\nvalue = 3.498"] ;
350 -> 351 ;
352 [label="X[76] <= 0.5\nsquared_error = 0.149\nsamples = 175\nvalue = 3.503"] ;
351 -> 352 ;
353 [label="X[57] <= 0.5\nsquared_error = 0.145\nsamples = 173\nvalue = 3.511"] ;
352 -> 353 ;
354 [label="X[34] <= 0.5\nsquared_error = 0.137\nsamples = 160\nvalue = 3.531"] ;
353 -> 354 ;
355 [label="X[50] <= 0.5\nsquared_error = 0.133\nsamples = 159\nvalue = 3.525"] ;
354 -> 355 ;
356 [label="X[89] <= 0.5\nsquared_error = 0.13\nsamples = 155\nvalue = 3.535"] ;
355 -> 356 ;
357 [label="X[46] <= 0.5\nsquared_error = 0.123\nsamples = 145\nvalue = 3.52"] ;
356 -> 357 ;
358 [label="X[7] <= 0.5\nsquared_error = 0.12\nsamples = 143\nvalue = 3.513"] ;
357 -> 358 ;
359 [label="X[74] <= 0.5\nsquared_error = 0.125\nsamples = 125\nvalue = 3.491"] ;
358 -> 359 ;
360 [label="squared_error = 0.123\nsamples = 123\nvalue = 3.483"] ;
359 -> 360 ;
361 [label="squared_error = 0.01\nsamples = 2\nvalue = 4.0"] ;
359 -> 361 ;
362 [label="squared_error = 0.057\nsamples = 18\nvalue = 3.661"] ;
358 -> 362 ;
363 [label="squared_error = 0.063\nsamples = 2\nvalue = 4.05"] ;
357 -> 363 ;
364 [label="squared_error = 0.188\nsamples = 10\nvalue = 3.76"] ;
356 -> 364 ;
365 [label="squared_error = 0.082\nsamples = 4\nvalue = 3.125"] ;
355 -> 365 ;
366 [label="squared_error = -0.0\nsamples = 1\nvalue = 4.4"] ;
354 -> 366 ;
367 [label="squared_error = 0.176\nsamples = 13\nvalue = 3.269"] ;
353 -> 367 ;
368 [label="squared_error = 0.062\nsamples = 2\nvalue = 2.85"] ;
352 -> 368 ;
369 [label="squared_error = 0.0\nsamples = 1\nvalue = 2.5"] ;
351 -> 369 ;
370 [label="squared_error = 0.013\nsamples = 7\nvalue = 3.914"] ;
350 -> 370 ;
371 [label="X[76] <= 0.5\nsquared_error = 0.134\nsamples = 923\nvalue = 3.458"] ;
349 -> 371 ;
372 [label="X[15] <= 0.5\nsquared_error = 0.133\nsamples = 918\nvalue = 3.456"] ;
371 -> 372 ;
373 [label="X[44] <= 0.5\nsquared_error = 0.133\nsamples = 912\nvalue = 3.457"] ;
372 -> 373 ;
374 [label="X[42] <= 0.5\nsquared_error = 0.133\nsamples = 890\nvalue = 3.454"] ;
373 -> 374 ;
375 [label="X[43] <= 0.5\nsquared_error = 0.133\nsamples = 871\nvalue = 3.457"] ;
374 -> 375 ;
376 [label="X[21] <= 0.5\nsquared_error = 0.131\nsamples = 841\nvalue = 3.461"] ;
375 -> 376 ;
377 [label="X[9] <= 0.5\nsquared_error = 0.131\nsamples = 828\nvalue = 3.463"] ;
376 -> 377 ;
378 [label="X[73] <= 0.5\nsquared_error = 0.131\nsamples = 800\nvalue = 3.467"] ;
377 -> 378 ;
379 [label="X[58] <= 0.5\nsquared_error = 0.131\nsamples = 799\nvalue = 3.466"] ;
378 -> 379 ;
380 [label="X[2] <= 0.5\nsquared_error = 0.128\nsamples = 769\nvalue = 3.47"] ;
379 -> 380 ;
381 [label="X[78] <= 0.5\nsquared_error = 0.142\nsamples = 149\nvalue = 3.431"] ;
380 -> 381 ;
382 [label="X[4] <= 0.5\nsquared_error = 0.137\nsamples = 147\nvalue = 3.422"] ;
381 -> 382 ;
383 [label="squared_error = 0.0\nsamples = 1\nvalue = 2.7"] ;
382 -> 383 ;
384 [label="squared_error = 0.135\nsamples = 146\nvalue = 3.427"] ;
382 -> 384 ;
385 [label="squared_error = 0.04\nsamples = 2\nvalue = 4.1"] ;
381 -> 385 ;
386 [label="X[38] <= 0.5\nsquared_error = 0.124\nsamples = 620\nvalue = 3.479"] ;
380 -> 386 ;
387 [label="X[93] <= 0.5\nsquared_error = 0.123\nsamples = 617\nvalue = 3.481"] ;
386 -> 387 ;
388 [label="squared_error = 0.118\nsamples = 429\nvalue = 3.466"] ;
387 -> 388 ;
389 [label="squared_error = 0.131\nsamples = 188\nvalue = 3.515"] ;
387 -> 389 ;
390 [label="squared_error = 0.149\nsamples = 3\nvalue = 3.033"] ;
386 -> 390 ;
391 [label="squared_error = 0.203\nsamples = 30\nvalue = 3.38"] ;
379 -> 391 ;
392 [label="squared_error = 0.0\nsamples = 1\nvalue = 4.0"] ;
378 -> 392 ;
393 [label="squared_error = 0.108\nsamples = 28\nvalue = 3.357"] ;
377 -> 393 ;
394 [label="squared_error = 0.134\nsamples = 13\nvalue = 3.3"] ;
376 -> 394 ;
395 [label="squared_error = 0.172\nsamples = 30\nvalue = 3.353"] ;
375 -> 395 ;
396 [label="squared_error = 0.144\nsamples = 19\nvalue = 3.321"] ;
374 -> 396 ;
397 [label="squared_error = 0.106\nsamples = 22\nvalue = 3.591"] ;
373 -> 397 ;
398 [label="squared_error = 0.091\nsamples = 6\nvalue = 3.183"] ;
372 -> 398 ;
399 [label="squared_error = 0.022\nsamples = 5\nvalue = 3.84"] ;
371 -> 399 ;
400 [label="squared_error = 0.167\nsamples = 50\nvalue = 3.382"] ;
348 -> 400 ;
401 [label="squared_error = 0.04\nsamples = 2\nvalue = 3.0"] ;
347 -> 401 ;
402 [label="squared_error = 0.156\nsamples = 6\nvalue = 3.733"] ;
346 -> 402 ;
403 [label="squared_error = 0.111\nsamples = 46\nvalue = 3.57"] ;
345 -> 403 ;
404 [label="squared_error = 0.174\nsamples = 12\nvalue = 3.658"] ;
344 -> 404 ;
405 [label="squared_error = 0.1\nsamples = 43\nvalue = 3.572"] ;
343 -> 405 ;
406 [label="squared_error = 0.119\nsamples = 32\nvalue = 3.606"] ;
342 -> 406 ;
407 [label="squared_error = 0.066\nsamples = 20\nvalue = 3.68"] ;
341 -> 407 ;
408 [label="squared_error = 0.067\nsamples = 12\nvalue = 3.275"] ;
340 -> 408 ;
409 [label="squared_error = 0.038\nsamples = 6\nvalue = 3.783"] ;
339 -> 409 ;
410 [label="squared_error = 0.047\nsamples = 3\nvalue = 4.0"] ;
338 -> 410 ;
411 [label="squared_error = 0.171\nsamples = 86\nvalue = 3.586"] ;
337 -> 411 ;
412 [label="squared_error = 0.228\nsamples = 37\nvalue = 3.676"] ;
336 -> 412 ;
413 [label="squared_error = 0.135\nsamples = 54\nvalue = 3.65"] ;
335 -> 413 ;
414 [label="X[4] <= 0.5\nsquared_error = 0.105\nsamples = 131\nvalue = 3.401"] ;
334 -> 414 ;
415 [label="squared_error = 0.136\nsamples = 20\nvalue = 3.25"] ;
414 -> 415 ;
416 [label="squared_error = 0.095\nsamples = 111\nvalue = 3.428"] ;
414 -> 416 ;
417 [label="squared_error = 0.136\nsamples = 41\nvalue = 3.651"] ;
333 -> 417 ;
418 [label="squared_error = 0.115\nsamples = 11\nvalue = 3.1"] ;
332 -> 418 ;
419 [label="squared_error = 0.168\nsamples = 63\nvalue = 3.668"] ;
331 -> 419 ;
420 [label="squared_error = 0.172\nsamples = 21\nvalue = 3.171"] ;
330 -> 420 ;
421 [label="squared_error = 0.157\nsamples = 9\nvalue = 4.011"] ;
329 -> 421 ;
422 [label="squared_error = 0.193\nsamples = 80\nvalue = 3.315"] ;
328 -> 422 ;
423 [label="X[97] <= 0.5\nsquared_error = 0.174\nsamples = 137\nvalue = 3.348"] ;
327 -> 423 ;
424 [label="X[57] <= 0.5\nsquared_error = 0.171\nsamples = 135\nvalue = 3.339"] ;
423 -> 424 ;
425 [label="squared_error = 0.152\nsamples = 119\nvalue = 3.313"] ;
424 -> 425 ;
426 [label="squared_error = 0.267\nsamples = 16\nvalue = 3.531"] ;
424 -> 426 ;
427 [label="squared_error = 0.003\nsamples = 2\nvalue = 3.95"] ;
423 -> 427 ;
428 [label="X[24] <= 0.5\nsquared_error = 0.14\nsamples = 164\nvalue = 3.619"] ;
326 -> 428 ;
429 [label="X[20] <= 0.5\nsquared_error = 0.137\nsamples = 157\nvalue = 3.602"] ;
428 -> 429 ;
430 [label="X[34] <= 0.5\nsquared_error = 0.129\nsamples = 150\nvalue = 3.619"] ;
429 -> 430 ;
431 [label="X[86] <= 0.5\nsquared_error = 0.128\nsamples = 147\nvalue = 3.61"] ;
430 -> 431 ;
432 [label="X[54] <= 0.5\nsquared_error = 0.118\nsamples = 138\nvalue = 3.593"] ;
431 -> 432 ;
433 [label="X[30] <= 0.5\nsquared_error = 0.113\nsamples = 128\nvalue = 3.576"] ;
432 -> 433 ;
434 [label="squared_error = 0.113\nsamples = 123\nvalue = 3.563"] ;
433 -> 434 ;
435 [label="squared_error = 0.022\nsamples = 5\nvalue = 3.88"] ;
433 -> 435 ;
436 [label="squared_error = 0.135\nsamples = 10\nvalue = 3.81"] ;
432 -> 436 ;
437 [label="squared_error = 0.204\nsamples = 9\nvalue = 3.867"] ;
431 -> 437 ;
438 [label="squared_error = 0.002\nsamples = 3\nvalue = 4.067"] ;
430 -> 438 ;
439 [label="squared_error = 0.162\nsamples = 7\nvalue = 3.243"] ;
429 -> 439 ;
440 [label="squared_error = 0.051\nsamples = 7\nvalue = 4.0"] ;
428 -> 440 ;
441 [label="squared_error = 0.324\nsamples = 9\nvalue = 4.122"] ;
325 -> 441 ;
442 [label="squared_error = 0.184\nsamples = 113\nvalue = 3.677"] ;
324 -> 442 ;
443 [label="squared_error = 0.097\nsamples = 43\nvalue = 3.819"] ;
323 -> 443 ;
444 [label="squared_error = 0.116\nsamples = 15\nvalue = 4.047"] ;
322 -> 444 ;
445 [label="squared_error = 0.222\nsamples = 93\nvalue = 3.99"] ;
3 -> 445 ;
446 [label="X[61] <= 0.5\nsquared_error = 0.154\nsamples = 899\nvalue = 3.782"] ;
2 -> 446 ;
447 [label="X[33] <= 0.5\nsquared_error = 0.153\nsamples = 638\nvalue = 3.827"] ;
446 -> 447 ;
448 [label="X[24] <= 0.5\nsquared_error = 0.148\nsamples = 598\nvalue = 3.808"] ;
447 -> 448 ;
449 [label="X[90] <= 0.5\nsquared_error = 0.141\nsamples = 556\nvalue = 3.79"] ;
448 -> 449 ;
450 [label="X[64] <= 0.5\nsquared_error = 0.14\nsamples = 540\nvalue = 3.78"] ;
449 -> 450 ;
451 [label="X[63] <= 0.5\nsquared_error = 0.132\nsamples = 532\nvalue = 3.789"] ;
450 -> 451 ;
452 [label="X[84] <= 0.5\nsquared_error = 0.139\nsamples = 369\nvalue = 3.758"] ;
451 -> 452 ;
453 [label="X[45] <= 0.5\nsquared_error = 0.139\nsamples = 350\nvalue = 3.77"] ;
452 -> 453 ;
454 [label="X[78] <= 0.5\nsquared_error = 0.138\nsamples = 339\nvalue = 3.78"] ;
453 -> 454 ;
455 [label="X[28] <= 0.5\nsquared_error = 0.136\nsamples = 327\nvalue = 3.791"] ;
454 -> 455 ;
456 [label="X[37] <= 0.5\nsquared_error = 0.132\nsamples = 323\nvalue = 3.797"] ;
455 -> 456 ;
457 [label="X[53] <= 0.5\nsquared_error = 0.131\nsamples = 320\nvalue = 3.792"] ;
456 -> 457 ;
458 [label="X[51] <= 0.5\nsquared_error = 0.128\nsamples = 318\nvalue = 3.788"] ;
457 -> 458 ;
459 [label="X[66] <= 0.5\nsquared_error = 0.126\nsamples = 315\nvalue = 3.792"] ;
458 -> 459 ;
460 [label="X[75] <= 0.5\nsquared_error = 0.13\nsamples = 280\nvalue = 3.776"] ;
459 -> 460 ;
461 [label="X[87] <= 0.5\nsquared_error = 0.102\nsamples = 136\nvalue = 3.726"] ;
460 -> 461 ;
462 [label="X[15] <= 0.5\nsquared_error = 0.1\nsamples = 128\nvalue = 3.705"] ;
461 -> 462 ;
463 [label="squared_error = 0.09\nsamples = 124\nvalue = 3.69"] ;
462 -> 463 ;
464 [label="squared_error = 0.182\nsamples = 4\nvalue = 4.175"] ;
462 -> 464 ;
465 [label="squared_error = 0.032\nsamples = 8\nvalue = 4.05"] ;
461 -> 465 ;
466 [label="X[8] <= 0.5\nsquared_error = 0.152\nsamples = 144\nvalue = 3.824"] ;
460 -> 466 ;
467 [label="X[29] <= 0.5\nsquared_error = 0.146\nsamples = 140\nvalue = 3.837"] ;
466 -> 467 ;
468 [label="X[26] <= 0.5\nsquared_error = 0.144\nsamples = 136\nvalue = 3.847"] ;
467 -> 468 ;
469 [label="squared_error = 0.144\nsamples = 124\nvalue = 3.831"] ;
468 -> 469 ;
470 [label="squared_error = 0.121\nsamples = 12\nvalue = 4.017"] ;
468 -> 470 ;
471 [label="squared_error = 0.085\nsamples = 4\nvalue = 3.5"] ;
467 -> 471 ;
472 [label="squared_error = 0.133\nsamples = 4\nvalue = 3.35"] ;
466 -> 472 ;
473 [label="squared_error = 0.077\nsamples = 35\nvalue = 3.923"] ;
459 -> 473 ;
474 [label="squared_error = 0.047\nsamples = 3\nvalue = 3.3"] ;
458 -> 474 ;
475 [label="squared_error = 0.16\nsamples = 2\nvalue = 4.4"] ;
457 -> 475 ;
476 [label="squared_error = 0.029\nsamples = 3\nvalue = 4.333"] ;
456 -> 476 ;
477 [label="squared_error = 0.225\nsamples = 4\nvalue = 3.3"] ;
455 -> 477 ;
478 [label="squared_error = 0.089\nsamples = 12\nvalue = 3.492"] ;
454 -> 478 ;
479 [label="squared_error = 0.082\nsamples = 11\nvalue = 3.473"] ;
453 -> 479 ;
480 [label="squared_error = 0.082\nsamples = 19\nvalue = 3.532"] ;
452 -> 480 ;
481 [label="X[71] <= 0.5\nsquared_error = 0.109\nsamples = 163\nvalue = 3.86"] ;
451 -> 481 ;
482 [label="X[31] <= 0.5\nsquared_error = 0.101\nsamples = 141\nvalue = 3.883"] ;
481 -> 482 ;
483 [label="X[88] <= 0.5\nsquared_error = 0.098\nsamples = 140\nvalue = 3.878"] ;
482 -> 483 ;
484 [label="X[54] <= 0.5\nsquared_error = 0.096\nsamples = 137\nvalue = 3.869"] ;
483 -> 484 ;
485 [label="X[22] <= 0.5\nsquared_error = 0.09\nsamples = 132\nvalue = 3.88"] ;
484 -> 485 ;
486 [label="squared_error = 0.09\nsamples = 122\nvalue = 3.865"] ;
485 -> 486 ;
487 [label="squared_error = 0.05\nsamples = 10\nvalue = 4.07"] ;
485 -> 487 ;
488 [label="squared_error = 0.182\nsamples = 5\nvalue = 3.58"] ;
484 -> 488 ;
489 [label="squared_error = 0.002\nsamples = 3\nvalue = 4.267"] ;
483 -> 489 ;
490 [label="squared_error = 0.0\nsamples = 1\nvalue = 4.6"] ;
482 -> 490 ;
491 [label="squared_error = 0.139\nsamples = 22\nvalue = 3.709"] ;
481 -> 491 ;
492 [label="squared_error = 0.315\nsamples = 8\nvalue = 3.2"] ;
450 -> 492 ;
493 [label="squared_error = 0.077\nsamples = 16\nvalue = 4.131"] ;
449 -> 493 ;
494 [label="squared_error = 0.177\nsamples = 42\nvalue = 4.033"] ;
448 -> 494 ;
495 [label="squared_error = 0.146\nsamples = 40\nvalue = 4.12"] ;
447 -> 495 ;
496 [label="X[76] <= 0.5\nsquared_error = 0.139\nsamples = 261\nvalue = 3.67"] ;
446 -> 496 ;
497 [label="X[91] <= 0.5\nsquared_error = 0.134\nsamples = 251\nvalue = 3.653"] ;
496 -> 497 ;
498 [label="X[32] <= 0.5\nsquared_error = 0.129\nsamples = 246\nvalue = 3.663"] ;
497 -> 498 ;
499 [label="X[19] <= 0.5\nsquared_error = 0.128\nsamples = 241\nvalue = 3.655"] ;
498 -> 499 ;
500 [label="X[23] <= 0.5\nsquared_error = 0.127\nsamples = 239\nvalue = 3.651"] ;
499 -> 500 ;
501 [label="X[75] <= 0.5\nsquared_error = 0.125\nsamples = 238\nvalue = 3.654"] ;
500 -> 501 ;
502 [label="X[27] <= 0.5\nsquared_error = 0.122\nsamples = 226\nvalue = 3.665"] ;
501 -> 502 ;
503 [label="X[73] <= 0.5\nsquared_error = 0.12\nsamples = 225\nvalue = 3.668"] ;
502 -> 503 ;
504 [label="X[33] <= 0.5\nsquared_error = 0.119\nsamples = 224\nvalue = 3.665"] ;
503 -> 504 ;
505 [label="X[4] <= 0.5\nsquared_error = 0.119\nsamples = 219\nvalue = 3.671"] ;
504 -> 505 ;
506 [label="X[10] <= 0.5\nsquared_error = 0.119\nsamples = 200\nvalue = 3.683"] ;
505 -> 506 ;
507 [label="X[20] <= 0.5\nsquared_error = 0.11\nsamples = 192\nvalue = 3.693"] ;
506 -> 507 ;
508 [label="X[2] <= 0.5\nsquared_error = 0.109\nsamples = 186\nvalue = 3.701"] ;
507 -> 508 ;
509 [label="squared_error = 0.168\nsamples = 43\nvalue = 3.788"] ;
508 -> 509 ;
510 [label="X[54] <= 0.5\nsquared_error = 0.088\nsamples = 143\nvalue = 3.674"] ;
508 -> 510 ;
511 [label="X[41] <= 0.5\nsquared_error = 0.085\nsamples = 134\nvalue = 3.693"] ;
510 -> 511 ;
512 [label="X[52] <= 0.5\nsquared_error = 0.082\nsamples = 126\nvalue = 3.704"] ;
511 -> 512 ;
513 [label="squared_error = 0.08\nsamples = 123\nvalue = 3.711"] ;
512 -> 513 ;
514 [label="squared_error = 0.06\nsamples = 3\nvalue = 3.4"] ;
512 -> 514 ;
515 [label="squared_error = 0.106\nsamples = 8\nvalue = 3.512"] ;
511 -> 515 ;
516 [label="squared_error = 0.051\nsamples = 9\nvalue = 3.4"] ;
510 -> 516 ;
517 [label="squared_error = 0.089\nsamples = 6\nvalue = 3.45"] ;
507 -> 517 ;
518 [label="squared_error = 0.275\nsamples = 8\nvalue = 3.462"] ;
506 -> 518 ;
519 [label="squared_error = 0.102\nsamples = 19\nvalue = 3.537"] ;
505 -> 519 ;
520 [label="squared_error = 0.052\nsamples = 5\nvalue = 3.4"] ;
504 -> 520 ;
521 [label="squared_error = 0.0\nsamples = 1\nvalue = 4.3"] ;
503 -> 521 ;
522 [label="squared_error = 0.0\nsamples = 1\nvalue = 3.0"] ;
502 -> 522 ;
523 [label="squared_error = 0.136\nsamples = 12\nvalue = 3.45"] ;
501 -> 523 ;
524 [label="squared_error = 0.0\nsamples = 1\nvalue = 2.9"] ;
500 -> 524 ;
525 [label="squared_error = 0.01\nsamples = 2\nvalue = 4.2"] ;
499 -> 525 ;
526 [label="squared_error = 0.03\nsamples = 5\nvalue = 4.02"] ;
498 -> 526 ;
527 [label="squared_error = 0.18\nsamples = 5\nvalue = 3.2"] ;
497 -> 527 ;
528 [label="squared_error = 0.078\nsamples = 10\nvalue = 4.1"] ;
496 -> 528 ;
529 [label="X[82] <= 0.5\nsquared_error = 0.167\nsamples = 195\nvalue = 4.052"] ;
1 -> 529 ;
530 [label="X[67] <= 0.5\nsquared_error = 0.153\nsamples = 172\nvalue = 3.996"] ;
529 -> 530 ;
531 [label="squared_error = 0.089\nsamples = 107\nvalue = 4.083"] ;
530 -> 531 ;
532 [label="squared_error = 0.226\nsamples = 65\nvalue = 3.852"] ;
530 -> 532 ;
533 [label="squared_error = 0.071\nsamples = 23\nvalue = 4.474"] ;
529 -> 533 ;
534 [label="X[5] <= 0.5\nsquared_error = 0.174\nsamples = 824\nvalue = 3.902"] ;
0 -> 534 [labeldistance=2.5, labelangle=-45, headlabel="False"] ;
535 [label="X[3] <= 0.5\nsquared_error = 0.173\nsamples = 624\nvalue = 3.833"] ;
534 -> 535 ;
536 [label="X[4] <= 0.5\nsquared_error = 0.171\nsamples = 570\nvalue = 3.807"] ;
535 -> 536 ;
537 [label="squared_error = 0.188\nsamples = 122\nvalue = 3.673"] ;
536 -> 537 ;
538 [label="X[33] <= 0.5\nsquared_error = 0.16\nsamples = 448\nvalue = 3.844"] ;
536 -> 538 ;
539 [label="X[67] <= 0.5\nsquared_error = 0.155\nsamples = 420\nvalue = 3.825"] ;
538 -> 539 ;
540 [label="X[65] <= 0.5\nsquared_error = 0.141\nsamples = 268\nvalue = 3.878"] ;
539 -> 540 ;
541 [label="X[59] <= 0.5\nsquared_error = 0.143\nsamples = 237\nvalue = 3.853"] ;
540 -> 541 ;
542 [label="X[13] <= 0.5\nsquared_error = 0.136\nsamples = 204\nvalue = 3.821"] ;
541 -> 542 ;
543 [label="X[20] <= 0.5\nsquared_error = 0.124\nsamples = 195\nvalue = 3.839"] ;
542 -> 543 ;
544 [label="X[93] <= 0.5\nsquared_error = 0.118\nsamples = 193\nvalue = 3.848"] ;
543 -> 544 ;
545 [label="X[7] <= 0.5\nsquared_error = 0.109\nsamples = 174\nvalue = 3.871"] ;
544 -> 545 ;
546 [label="X[91] <= 0.5\nsquared_error = 0.103\nsamples = 168\nvalue = 3.885"] ;
545 -> 546 ;
547 [label="X[30] <= 0.5\nsquared_error = 0.102\nsamples = 164\nvalue = 3.876"] ;
546 -> 547 ;
548 [label="X[0] <= 0.5\nsquared_error = 0.101\nsamples = 159\nvalue = 3.884"] ;
547 -> 548 ;
549 [label="X[90] <= 0.5\nsquared_error = 0.103\nsamples = 139\nvalue = 3.867"] ;
548 -> 549 ;
550 [label="X[56] <= 0.5\nsquared_error = 0.105\nsamples = 129\nvalue = 3.853"] ;
549 -> 550 ;
551 [label="squared_error = 0.108\nsamples = 110\nvalue = 3.832"] ;
550 -> 551 ;
552 [label="squared_error = 0.074\nsamples = 19\nvalue = 3.974"] ;
550 -> 552 ;
553 [label="squared_error = 0.042\nsamples = 10\nvalue = 4.05"] ;
549 -> 553 ;
554 [label="squared_error = 0.068\nsamples = 20\nvalue = 4.005"] ;
548 -> 554 ;
555 [label="squared_error = 0.052\nsamples = 5\nvalue = 3.6"] ;
547 -> 555 ;
556 [label="squared_error = 0.007\nsamples = 4\nvalue = 4.275"] ;
546 -> 556 ;
557 [label="squared_error = 0.111\nsamples = 6\nvalue = 3.483"] ;
545 -> 557 ;
558 [label="squared_error = 0.154\nsamples = 19\nvalue = 3.632"] ;
544 -> 558 ;
559 [label="squared_error = 0.002\nsamples = 2\nvalue = 3.05"] ;
543 -> 559 ;
560 [label="squared_error = 0.223\nsamples = 9\nvalue = 3.411"] ;
542 -> 560 ;
561 [label="squared_error = 0.144\nsamples = 33\nvalue = 4.052"] ;
541 -> 561 ;
562 [label="squared_error = 0.081\nsamples = 31\nvalue = 4.071"] ;
540 -> 562 ;
563 [label="X[17] <= 0.5\nsquared_error = 0.166\nsamples = 152\nvalue = 3.731"] ;
539 -> 563 ;
564 [label="X[50] <= 0.5\nsquared_error = 0.142\nsamples = 151\nvalue = 3.744"] ;
563 -> 564 ;
565 [label="X[58] <= 0.5\nsquared_error = 0.138\nsamples = 150\nvalue = 3.749"] ;
564 -> 565 ;
566 [label="X[38] <= 0.5\nsquared_error = 0.136\nsamples = 146\nvalue = 3.76"] ;
565 -> 566 ;
567 [label="X[66] <= 0.5\nsquared_error = 0.133\nsamples = 145\nvalue = 3.766"] ;
566 -> 567 ;
568 [label="X[72] <= 0.5\nsquared_error = 0.137\nsamples = 128\nvalue = 3.747"] ;
567 -> 568 ;
569 [label="X[83] <= 0.5\nsquared_error = 0.133\nsamples = 125\nvalue = 3.738"] ;
568 -> 569 ;
570 [label="squared_error = 0.13\nsamples = 122\nvalue = 3.73"] ;
569 -> 570 ;
571 [label="squared_error = 0.087\nsamples = 3\nvalue = 4.1"] ;
569 -> 571 ;
572 [label="squared_error = 0.187\nsamples = 3\nvalue = 4.1"] ;
568 -> 572 ;
573 [label="squared_error = 0.084\nsamples = 17\nvalue = 3.906"] ;
567 -> 573 ;
574 [label="squared_error = -0.0\nsamples = 1\nvalue = 3.0"] ;
566 -> 574 ;
575 [label="squared_error = 0.043\nsamples = 4\nvalue = 3.35"] ;
565 -> 575 ;
576 [label="squared_error = 0.0\nsamples = 1\nvalue = 2.9"] ;
564 -> 576 ;
577 [label="squared_error = -0.0\nsamples = 1\nvalue = 1.8"] ;
563 -> 577 ;
578 [label="squared_error = 0.148\nsamples = 28\nvalue = 4.125"] ;
538 -> 578 ;
579 [label="squared_error = 0.112\nsamples = 54\nvalue = 4.104"] ;
535 -> 579 ;
580 [label="X[67] <= 0.5\nsquared_error = 0.117\nsamples = 200\nvalue = 4.117"] ;
534 -> 580 ;
581 [label="X[48] <= 0.5\nsquared_error = 0.107\nsamples = 129\nvalue = 4.178"] ;
580 -> 581 ;
582 [label="squared_error = 0.105\nsamples = 124\nvalue = 4.164"] ;
581 -> 582 ;
583 [label="squared_error = 0.034\nsamples = 5\nvalue = 4.54"] ;
581 -> 583 ;
584 [label="squared_error = 0.116\nsamples = 71\nvalue = 4.006"] ;
580 -> 584 ;
}